<?xml version="1.0"?>
<opencv_storage>
<cascade>
  <stageType>BOOST</stageType>
  <featureType>HAAR</featureType>
  <height>24</height>
  <width>24</width>
  <stageParams>
    <boostType>GAB</boostType>
    <minHitRate>9.9500000476837158e-01</minHitRate>
    <maxFalseAlarm>3.0000001192092896e-01</maxFalseAlarm>
    <weightTrimRate>9.4999999999999996e-01</weightTrimRate>
    <maxDepth>1</maxDepth>
    <maxWeakCount>100</maxWeakCount></stageParams>
  <featureParams>
    <maxCatCount>0</maxCatCount>
    <featSize>1</featSize>
    <mode>BASIC</mode></featureParams>
  <stageNum>8</stageNum>
  <stages>
    <!-- stage 0 -->
    <_>
      <maxWeakCount>3</maxWeakCount>
      <stageThreshold>-1.0404697656631470e+00</stageThreshold>
      <weakClassifiers>
        <_>
          <internalNodes>
            0 -1 4 1.0922560095787048e-01</internalNodes>
          <leafValues>
            -9.1475021839141846e-01 9.3099272251129150e-01</leafValues></_>
        <_>
          <internalNodes>
            0 -1 33 4.7055259346961975e-02</internalNodes>
          <leafValues>
            -8.5611933469772339e-01 8.9246696233749390e-01</leafValues></_>
        <_>
          <internalNodes>
            0 -1 22 5.2964359521865845e-02</internalNodes>
          <leafValues>
            -9.6082085371017456e-01 7.3039972782135010e-01</leafValues></_></weakClassifiers></_>
    <!-- stage 1 -->
    <_>
      <maxWeakCount>4</maxWeakCount>
      <stageThreshold>-5.2814245223999023e-01</stageThreshold>
      <weakClassifiers>
        <_>
          <internalNodes>
            0 -1 38 5.4522775113582611e-02</internalNodes>
          <leafValues>
            -8.6874127388000488e-01 8.7327051162719727e-01</leafValues></_>
        <_>
          <internalNodes>
            0 -1 25 2.3409120738506317e-02</internalNodes>
          <leafValues>
            -8.9226627349853516e-01 7.4283492565155029e-01</leafValues></_>
        <_>
          <internalNodes>
            0 -1 5 9.1604866087436676e-02</internalNodes>
          <leafValues>
            -8.8912612199783325e-01 7.1613705158233643e-01</leafValues></_>
        <_>
          <internalNodes>
            0 -1 7 8.2092568278312683e-02</internalNodes>
          <leafValues>
            -9.2917424440383911e-01 5.1672804355621338e-01</leafValues></_></weakClassifiers></_>
    <!-- stage 2 -->
    <_>
      <maxWeakCount>4</maxWeakCount>
      <stageThreshold>-7.8463357686996460e-01</stageThreshold>
      <weakClassifiers>
        <_>
          <internalNodes>
            0 -1 28 -3.2499812543392181e-02</internalNodes>
          <leafValues>
            7.8684365749359131e-01 -8.2653272151947021e-01</leafValues></_>
        <_>
          <internalNodes>
            0 -1 11 1.3267129659652710e-01</internalNodes>
          <leafValues>
            -8.9104712009429932e-01 5.5203956365585327e-01</leafValues></_>
        <_>
          <internalNodes>
            0 -1 18 -3.4657016396522522e-02</internalNodes>
          <leafValues>
            4.2919284105300903e-01 -9.1376322507858276e-01</leafValues></_>
        <_>
          <internalNodes>
            0 -1 23 5.0407312810420990e-02</internalNodes>
          <leafValues>
            -8.0835384130477905e-01 5.0375336408615112e-01</leafValues></_></weakClassifiers></_>
    <!-- stage 3 -->
    <_>
      <maxWeakCount>5</maxWeakCount>
      <stageThreshold>-1.0518854856491089e+00</stageThreshold>
      <weakClassifiers>
        <_>
          <internalNodes>
            0 -1 39 8.2361273467540741e-02</internalNodes>
          <leafValues>
            -7.7263820171356201e-01 8.0481827259063721e-01</leafValues></_>
        <_>
          <internalNodes>
            0 -1 16 2.9142567887902260e-02</internalNodes>
          <leafValues>
            -7.4828374385833740e-01 6.4417868852615356e-01</leafValues></_>
        <_>
          <internalNodes>
            0 -1 37 1.0962328314781189e-01</internalNodes>
          <leafValues>
            -8.8439661264419556e-01 4.3164345622062683e-01</leafValues></_>
        <_>
          <internalNodes>
            0 -1 3 6.8020448088645935e-02</internalNodes>
          <leafValues>
            -6.2770622968673706e-01 5.6608712673187256e-01</leafValues></_>
        <_>
          <internalNodes>
            0 -1 30 -4.4841691851615906e-02</internalNodes>
          <leafValues>
            7.3224711418151855e-01 -5.2869421243667603e-01</leafValues></_></weakClassifiers></_>
    <!-- stage 4 -->
    <_>
      <maxWeakCount>7</maxWeakCount>
      <stageThreshold>-1.1466249227523804e+00</stageThreshold>
      <weakClassifiers>
        <_>
          <internalNodes>
            0 -1 36 8.8074155151844025e-02</internalNodes>
          <leafValues>
            -7.3142856359481812e-01 7.0274507999420166e-01</leafValues></_>
        <_>
          <internalNodes>
            0 -1 26 1.9641648977994919e-02</internalNodes>
          <leafValues>
            -6.9864368438720703e-01 5.8675509691238403e-01</leafValues></_>
        <_>
          <internalNodes>
            0 -1 9 1.4114938676357269e-02</internalNodes>
          <leafValues>
            -7.6011919975280762e-01 4.0764808654785156e-01</leafValues></_>
        <_>
          <internalNodes>
            0 -1 1 3.7044852972030640e-02</internalNodes>
          <leafValues>
            -7.8457832336425781e-01 4.3582239747047424e-01</leafValues></_>
        <_>
          <internalNodes>
            0 -1 41 -7.0169650018215179e-02</internalNodes>
          <leafValues>
            6.5451866388320923e-01 -5.1530623435974121e-01</leafValues></_>
        <_>
          <internalNodes>
            0 -1 15 -3.5615578293800354e-02</internalNodes>
          <leafValues>
            4.2787915468215942e-01 -7.7415537834167480e-01</leafValues></_>
        <_>
          <internalNodes>
            0 -1 32 -7.9219788312911987e-02</internalNodes>
          <leafValues>
            8.1432104110717773e-01 -4.2202022671699524e-01</leafValues></_></weakClassifiers></_>
    <!-- stage 5 -->
    <_>
      <maxWeakCount>6</maxWeakCount>
      <stageThreshold>-5.8246952295303345e-01</stageThreshold>
      <weakClassifiers>
        <_>
          <internalNodes>
            0 -1 34 3.7630353122949600e-02</internalNodes>
          <leafValues>
            -7.7068150043487549e-01 6.7416572570800781e-01</leafValues></_>
        <_>
          <internalNodes>
            0 -1 12 1.4071258902549744e-01</internalNodes>
          <leafValues>
            -7.1458327770233154e-01 4.5631292462348938e-01</leafValues></_>
        <_>
          <internalNodes>
            0 -1 6 7.2235368192195892e-02</internalNodes>
          <leafValues>
            -6.7349153757095337e-01 4.3869090080261230e-01</leafValues></_>
        <_>
          <internalNodes>
            0 -1 17 -6.6405281424522400e-02</internalNodes>
          <leafValues>
            6.5353596210479736e-01 -4.1542482376098633e-01</leafValues></_>
        <_>
          <internalNodes>
            0 -1 29 3.1502246856689453e-02</internalNodes>
          <leafValues>
            -4.6258276700973511e-01 6.9992172718048096e-01</leafValues></_>
        <_>
          <internalNodes>
            0 -1 13 -3.9102445589378476e-04</internalNodes>
          <leafValues>
            2.7315121889114380e-01 -9.7814309597015381e-01</leafValues></_></weakClassifiers></_>
    <!-- stage 6 -->
    <_>
      <maxWeakCount>7</maxWeakCount>
      <stageThreshold>-1.2998052835464478e+00</stageThreshold>
      <weakClassifiers>
        <_>
          <internalNodes>
            0 -1 31 1.5797512605786324e-02</internalNodes>
          <leafValues>
            -7.2864770889282227e-01 5.9520345926284790e-01</leafValues></_>
        <_>
          <internalNodes>
            0 -1 43 -4.1517555713653564e-02</internalNodes>
          <leafValues>
            5.8265900611877441e-01 -5.6081020832061768e-01</leafValues></_>
        <_>
          <internalNodes>
            0 -1 14 1.1766819655895233e-01</internalNodes>
          <leafValues>
            -9.4272649288177490e-01 3.2102042436599731e-01</leafValues></_>
        <_>
          <internalNodes>
            0 -1 0 8.7494388222694397e-02</internalNodes>
          <leafValues>
            -9.0300542116165161e-01 2.4967183172702789e-01</leafValues></_>
        <_>
          <internalNodes>
            0 -1 2 1.5533176064491272e-01</internalNodes>
          <leafValues>
            -7.5416201353073120e-01 3.0000638961791992e-01</leafValues></_>
        <_>
          <internalNodes>
            0 -1 20 3.2435532659292221e-02</internalNodes>
          <leafValues>
            -4.9055206775665283e-01 6.0690581798553467e-01</leafValues></_>
        <_>
          <internalNodes>
            0 -1 24 1.0175925493240356e-01</internalNodes>
          <leafValues>
            -4.2457541823387146e-01 7.6413190364837646e-01</leafValues></_></weakClassifiers></_>
    <!-- stage 7 -->
    <_>
      <maxWeakCount>9</maxWeakCount>
      <stageThreshold>-1.2038035392761230e+00</stageThreshold>
      <weakClassifiers>
        <_>
          <internalNodes>
            0 -1 8 2.1600218489766121e-02</internalNodes>
          <leafValues>
            -7.6178532838821411e-01 5.0532269477844238e-01</leafValues></_>
        <_>
          <internalNodes>
            0 -1 21 -2.0756805315613747e-02</internalNodes>
          <leafValues>
            5.8863866329193115e-01 -4.9731332063674927e-01</leafValues></_>
        <_>
          <internalNodes>
            0 -1 40 -2.5093082338571548e-02</internalNodes>
          <leafValues>
            4.6706640720367432e-01 -5.6771653890609741e-01</leafValues></_>
        <_>
          <internalNodes>
            0 -1 10 5.6256428360939026e-02</internalNodes>
          <leafValues>
            -8.9880222082138062e-01 3.1592252850532532e-01</leafValues></_>
        <_>
          <internalNodes>
            0 -1 27 1.9413135014474392e-03</internalNodes>
          <leafValues>
            -7.9387015104293823e-01 2.1818886697292328e-01</leafValues></_>
        <_>
          <internalNodes>
            0 -1 44 2.9568251193268225e-05</internalNodes>
          <leafValues>
            -5.1388233900070190e-01 4.0544527769088745e-01</leafValues></_>
        <_>
          <internalNodes>
            0 -1 42 1.0743220336735249e-02</internalNodes>
          <leafValues>
            -6.4188194274902344e-01 3.2098025083541870e-01</leafValues></_>
        <_>
          <internalNodes>
            0 -1 35 4.2396164499223232e-03</internalNodes>
          <leafValues>
            2.1383765339851379e-01 -9.1501051187515259e-01</leafValues></_>
        <_>
          <internalNodes>
            0 -1 19 1.0641545802354813e-01</internalNodes>
          <leafValues>
            1.6069613397121429e-01 -9.2561382055282593e-01</leafValues></_></weakClassifiers></_></stages>
  <features>
    <_>
      <rects>
        <_>
          0 4 20 7 -1.</_>
        <_>
          10 4 10 7 2.</_></rects>
      <tilted>0</tilted></_>
    <_>
      <rects>
        <_>
          0 6 18 2 -1.</_>
        <_>
          9 6 9 2 2.</_></rects>
      <tilted>0</tilted></_>
    <_>
      <rects>
        <_>
          0 7 18 14 -1.</_>
        <_>
          6 7 6 14 3.</_></rects>
      <tilted>0</tilted></_>
    <_>
      <rects>
        <_>
          0 13 15 4 -1.</_>
        <_>
          5 13 5 4 3.</_></rects>
      <tilted>0</tilted></_>
    <_>
      <rects>
        <_>
          0 13 18 5 -1.</_>
        <_>
          6 13 6 5 3.</_></rects>
      <tilted>0</tilted></_>
    <_>
      <rects>
        <_>
          0 13 12 8 -1.</_>
        <_>
          6 13 6 8 2.</_></rects>
      <tilted>0</tilted></_>
    <_>
      <rects>
        <_>
          1 1 20 8 -1.</_>
        <_>
          1 5 20 4 2.</_></rects>
      <tilted>0</tilted></_>
    <_>
      <rects>
        <_>
          1 3 18 8 -1.</_>
        <_>
          10 3 9 8 2.</_></rects>
      <tilted>0</tilted></_>
    <_>
      <rects>
        <_>
          1 13 15 1 -1.</_>
        <_>
          6 13 5 1 3.</_></rects>
      <tilted>0</tilted></_>
    <_>
      <rects>
        <_>
          2 17 15 1 -1.</_>
        <_>
          7 17 5 1 3.</_></rects>
      <tilted>0</tilted></_>
    <_>
      <rects>
        <_>
          3 1 15 20 -1.</_>
        <_>
          3 11 15 10 2.</_></rects>
      <tilted>0</tilted></_>
    <_>
      <rects>
        <_>
          3 9 18 15 -1.</_>
        <_>
          3 14 18 5 3.</_></rects>
      <tilted>0</tilted></_>
    <_>
      <rects>
        <_>
          3 13 15 10 -1.</_>
        <_>
          8 13 5 10 3.</_></rects>
      <tilted>0</tilted></_>
    <_>
      <rects>
        <_>
          3 16 7 4 -1.</_>
        <_>
          3 18 7 2 2.</_></rects>
      <tilted>0</tilted></_>
    <_>
      <rects>
        <_>
          4 9 17 15 -1.</_>
        <_>
          4 14 17 5 3.</_></rects>
      <tilted>0</tilted></_>
    <_>
      <rects>
        <_>
          4 18 16 6 -1.</_>
        <_>
          4 21 16 3 2.</_></rects>
      <tilted>0</tilted></_>
    <_>
      <rects>
        <_>
          6 9 8 14 -1.</_>
        <_>
          6 9 4 7 2.</_>
        <_>
          10 16 4 7 2.</_></rects>
      <tilted>0</tilted></_>
    <_>
      <rects>
        <_>
          6 12 15 3 -1.</_>
        <_>
          11 12 5 3 3.</_></rects>
      <tilted>0</tilted></_>
    <_>
      <rects>
        <_>
          6 17 18 6 -1.</_>
        <_>
          15 17 9 6 2.</_></rects>
      <tilted>0</tilted></_>
    <_>
      <rects>
        <_>
          7 4 16 9 -1.</_>
        <_>
          15 4 8 9 2.</_></rects>
      <tilted>0</tilted></_>
    <_>
      <rects>
        <_>
          7 5 9 6 -1.</_>
        <_>
          7 7 9 2 3.</_></rects>
      <tilted>0</tilted></_>
    <_>
      <rects>
        <_>
          7 20 6 4 -1.</_>
        <_>
          7 22 6 2 2.</_></rects>
      <tilted>0</tilted></_>
    <_>
      <rects>
        <_>
          8 9 4 15 -1.</_>
        <_>
          8 14 4 5 3.</_></rects>
      <tilted>0</tilted></_>
    <_>
      <rects>
        <_>
          9 0 9 8 -1.</_>
        <_>
          9 4 9 4 2.</_></rects>
      <tilted>0</tilted></_>
    <_>
      <rects>
        <_>
          9 1 9 9 -1.</_>
        <_>
          9 4 9 3 3.</_></rects>
      <tilted>0</tilted></_>
    <_>
      <rects>
        <_>
          9 4 10 6 -1.</_>
        <_>
          9 6 10 2 3.</_></rects>
      <tilted>0</tilted></_>
    <_>
      <rects>
        <_>
          9 9 3 6 -1.</_>
        <_>
          9 12 3 3 2.</_></rects>
      <tilted>0</tilted></_>
    <_>
      <rects>
        <_>
          9 12 6 7 -1.</_>
        <_>
          11 12 2 7 3.</_></rects>
      <tilted>0</tilted></_>
    <_>
      <rects>
        <_>
          9 12 12 2 -1.</_>
        <_>
          13 12 4 2 3.</_></rects>
      <tilted>0</tilted></_>
    <_>
      <rects>
        <_>
          9 14 9 8 -1.</_>
        <_>
          12 14 3 8 3.</_></rects>
      <tilted>0</tilted></_>
    <_>
      <rects>
        <_>
          11 4 3 12 -1.</_>
        <_>
          11 8 3 4 3.</_></rects>
      <tilted>0</tilted></_>
    <_>
      <rects>
        <_>
          11 10 10 1 -1.</_>
        <_>
          16 10 5 1 2.</_></rects>
      <tilted>0</tilted></_>
    <_>
      <rects>
        <_>
          11 11 12 5 -1.</_>
        <_>
          15 11 4 5 3.</_></rects>
      <tilted>0</tilted></_>
    <_>
      <rects>
        <_>
          13 4 8 10 -1.</_>
        <_>
          13 4 4 5 2.</_>
        <_>
          17 9 4 5 2.</_></rects>
      <tilted>0</tilted></_>
    <_>
      <rects>
        <_>
          13 5 8 6 -1.</_>
        <_>
          13 5 4 3 2.</_>
        <_>
          17 8 4 3 2.</_></rects>
      <tilted>0</tilted></_>
    <_>
      <rects>
        <_>
          13 6 11 12 -1.</_>
        <_>
          13 12 11 6 2.</_></rects>
      <tilted>0</tilted></_>
    <_>
      <rects>
        <_>
          14 3 8 14 -1.</_>
        <_>
          14 3 4 7 2.</_>
        <_>
          18 10 4 7 2.</_></rects>
      <tilted>0</tilted></_>
    <_>
      <rects>
        <_>
          15 0 8 24 -1.</_>
        <_>
          15 8 8 8 3.</_></rects>
      <tilted>0</tilted></_>
    <_>
      <rects>
        <_>
          15 9 9 6 -1.</_>
        <_>
          18 9 3 6 3.</_></rects>
      <tilted>0</tilted></_>
    <_>
      <rects>
        <_>
          15 9 9 7 -1.</_>
        <_>
          18 9 3 7 3.</_></rects>
      <tilted>0</tilted></_>
    <_>
      <rects>
        <_>
          16 6 8 3 -1.</_>
        <_>
          20 6 4 3 2.</_></rects>
      <tilted>0</tilted></_>
    <_>
      <rects>
        <_>
          18 6 6 13 -1.</_>
        <_>
          21 6 3 13 2.</_></rects>
      <tilted>0</tilted></_>
    <_>
      <rects>
        <_>
          18 9 4 12 -1.</_>
        <_>
          18 13 4 4 3.</_></rects>
      <tilted>0</tilted></_>
    <_>
      <rects>
        <_>
          20 6 4 14 -1.</_>
        <_>
          22 6 2 14 2.</_></rects>
      <tilted>0</tilted></_>
    <_>
      <rects>
        <_>
          20 20 2 2 -1.</_>
        <_>
          20 20 1 1 2.</_>
        <_>
          21 21 1 1 2.</_></rects>
      <tilted>0</tilted></_></features></cascade>
</opencv_storage>
